#! FIELDS theta lambda file.free der_theta der_lambda
#! SET min_theta -pi
#! SET max_theta pi
#! SET nbins_theta  60
#! SET periodic_theta true
#! SET min_lambda 0
#! SET max_lambda 19
#! SET nbins_lambda  20
#! SET periodic_lambda false
   -3.141592654    0.000000000    0.000000000    0.603873532   -0.000000000
   -3.036872898    0.000000000    1.365759561   25.396552624   -0.000000000
   -2.932153143    0.000000000    5.268207441   48.861718010   -0.000000000
   -2.827433388    0.000000000   11.509831034   69.944549819   -0.000000000
   -2.722713633    0.000000000   19.805717995   87.965632817   -0.000000000
   -2.617993878    0.000000000   29.808062502  102.336588528   -0.000000000
   -2.513274123    0.000000000   41.071609494  112.019957479   -0.000000000
   -2.408554368    0.000000000   53.108920842  117.068480132   -0.000000000
   -2.303834613    0.000000000   65.419815024  117.138409417   -0.000000000
   -2.199114858    0.000000000   77.473146745  112.329749776   -0.000000000
   -2.094395102    0.000000000   88.780855804  102.701813841   -0.000000000
   -1.989675347    0.000000000   98.847212753   88.691653633   -0.000000000
   -1.884955592    0.000000000  107.239892055   70.873661080   -0.000000000
   -1.780235837    0.000000000  113.609143842   50.312529302   -0.000000000
   -1.675516082    0.000000000  117.694158994   27.403856386   -0.000000000
   -1.570796327    0.000000000  119.301804415    3.206824408   -0.000000000
   -1.466076572    0.000000000  118.368719556  -20.877795399   -0.000000000
   -1.361356817    0.000000000  114.937065370  -44.461883129   -0.000000000
   -1.256637061    0.000000000  109.132846049  -65.925714069   -0.000000000
   -1.151917306    0.000000000  101.220856422  -84.540758571   -0.000000000
   -1.047197551    0.000000000   91.550238259  -99.327378597   -0.000000000
   -0.942477796    0.000000000   80.575889471 -109.413685802   -0.000000000
   -0.837758041    0.000000000   68.815653589 -114.282166195   -0.000000000
   -0.733038286    0.000000000   56.817525691 -114.043210720   -0.000000000
   -0.628318531    0.000000000   45.111598878 -108.707925799   -0.000000000
   -0.523598776    0.000000000   34.218996647  -98.698248929   -0.000000000
   -0.418879020    0.000000000   24.606893516  -84.277264696   -0.000000000
   -0.314159265    0.000000000   16.684174633  -66.509141543   -0.000000000
   -0.209439510    0.000000000   10.788613160  -45.755238703   -0.000000000
   -0.104719755    0.000000000    7.155363347  -23.320651272   -0.000000000
    0.000000000    0.000000000    5.937725448    0.072869256   -0.000000000
    0.104719755    0.000000000    7.171366671   23.356740398   -0.000000000
    0.209439510    0.000000000   10.798853383   45.747408154   -0.000000000
    0.314159265    0.000000000   16.678209448   66.203258620   -0.000000000
    0.418879020    0.000000000   24.544467477   83.599276849   -0.000000000
    0.523598776    0.000000000   34.055933828   97.459620976   -0.000000000
    0.628318531    0.000000000   44.802473837  107.050757140   -0.000000000
    0.733038286    0.000000000   56.297258335  111.821958994   -0.000000000
    0.837758041    0.000000000   68.047194173  111.758329807   -0.000000000
    0.942477796    0.000000000   79.530419073  106.859260036   -0.000000000
    1.047197551    0.000000000   90.245730639   97.172849998   -0.000000000
    1.151917306    0.000000000   99.724698994   83.361236445   -0.000000000
    1.256637061    0.000000000  107.549707378   65.659060249   -0.000000000
    1.361356817    0.000000000  113.387168261   45.262124143   -0.000000000
    1.466076572    0.000000000  116.957966134   22.632220724   -0.000000000
    1.570796327    0.000000000  118.087706731   -1.202281421   -0.000000000
    1.675516082    0.000000000  116.697294976  -25.372698736   -0.000000000
    1.780235837    0.000000000  112.821184645  -48.444454571   -0.000000000
    1.884955592    0.000000000  106.615761288  -69.585165933   -0.000000000
    1.989675347    0.000000000   98.339023096  -87.877236850   -0.000000000
    2.094395102    0.000000000   88.352351417 -102.291590049   -0.000000000
    2.199114858    0.000000000   77.089154653 -112.191416606   -0.000000000
    2.303834613    0.000000000   65.023596228 -117.377169193   -0.000000000
    2.408554368    0.000000000   52.693794152 -117.329516740   -0.000000000
    2.513274123    0.000000000   40.631260632 -112.150264566   -0.000000000
    2.617993878    0.000000000   29.362818023 -102.178935451   -0.000000000
    2.722713633    0.000000000   19.390840502  -87.553965201   -0.000000000
    2.827433388    0.000000000   11.155934088  -69.209779435   -0.000000000
    2.932153143    0.000000000    5.003756007  -47.809686562   -0.000000000
    3.036872898    0.000000000    1.230278556  -24.054357535   -0.000000000

   -3.141592654    1.000000000    1.624668999    0.414436874   -0.000000000
   -3.036872898    1.000000000    2.958863843   24.938651952   -0.000000000
   -2.932153143    1.000000000    6.809110917   48.249601355   -0.000000000
   -2.827433388    1.000000000   12.996360398   69.437752105   -0.000000000
   -2.722713633    1.000000000   21.223689961   87.211914669   -0.000000000
   -2.617993878    1.000000000   31.149600087  101.769296942   -0.000000000
   -2.513274123    1.000000000   42.368862696  111.733570620   -0.000000000
   -2.408554368    1.000000000   54.401530956  117.292012617   -0.000000000
   -2.303834613    1.000000000   66.762455340  117.880349858   -0.000000000
   -2.199114858    1.000000000   78.902384735  113.313469667   -0.000000000
   -2.094395102    1.000000000   90.306321209  103.655652693   -0.000000000
   -1.989675347    1.000000000  100.439796069   89.131674752   -0.000000000
   -1.884955592    1.000000000  108.831251479   70.586914273   -0.000000000
   -1.780235837    1.000000000  115.107008309   48.717712774   -0.000000000
   -1.675516082    1.000000000  118.953150323   24.559986911   -0.000000000
   -1.570796327    1.000000000  120.219276589   -0.285581329   -0.000000000
   -1.466076572    1.000000000  118.907174968  -24.655953770   -0.000000000
   -1.361356817    1.000000000  115.109597875  -47.598521852   -0.000000000
   -1.256637061    1.000000000  109.047608227  -67.694263434   -0.000000000
   -1.151917306    1.000000000  101.030264367  -84.907148339   -0.000000000
   -1.047197551    1.000000000   91.400155306  -98.308993912   -0.000000000
   -0.942477796    1.000000000   80.585322460 -107.458221317   -0.000000000
   -0.837758041    1.000000000   69.042597102 -112.212636854   -0.000000000
   -0.733038286    1.000000000   57.255863438 -112.073876088   -0.000000000
   -0.628318531    1.000000000   45.723862180 -107.339353410   -0.000000000
   -0.523598776    1.000000000   34.937042901  -97.717908867   -0.000000000
   -0.418879020    1.000000000   25.388910201  -83.995247436   -0.000000000
   -0.314159265    1.000000000   17.486431938  -66.347303687   -0.000000000
   -0.209439510    1.000000000   11.572338160  -46.156883922   -0.000000000
   -0.104719755    1.000000000    7.886826438  -23.743231747   -0.000000000
    0.000000000    1.000000000    6.622014939   -0.405419289   -0.000000000
    0.104719755    1.000000000    7.808182217   23.099974270   -0.000000000
    0.209439510    1.000000000   11.425857121   45.656275081   -0.000000000
    0.314159265    1.000000000   17.299917271   66.177433439   -0.000000000
    0.418879020    1.000000000   25.192781528   84.014266957   -0.000000000
    0.523598776    1.000000000   34.746359702   97.831877229   -0.000000000
    0.628318531    1.000000000   45.546239781  107.587198990   -0.000000000
    0.733038286    1.000000000   57.098466190  112.247834453   -0.000000000
    0.837758041    1.000000000   68.892178474  112.185246079   -0.000000000
    0.942477796    1.000000000   80.420387866  107.201884660   -0.000000000
    1.047197551    1.000000000   91.165348775   97.342973000   -0.000000000
    1.151917306    1.000000000  100.664974348   83.459990951   -0.000000000
    1.256637061    1.000000000  108.525029099   66.113535190   -0.000000000
    1.361356817    1.000000000  114.405713330   45.745994688   -0.000000000
    1.466076572    1.000000000  118.025137508   23.256929638   -0.000000000
    1.570796327    1.000000000  119.223526638   -0.599292285   -0.000000000
    1.675516082    1.000000000  117.899561604  -24.628049110   -0.000000000
    1.780235837    1.000000000  114.085493712  -48.074421601   -0.000000000
    1.884955592    1.000000000  107.905978676  -69.655397996   -0.000000000
    1.989675347    1.000000000   99.623859243  -87.921749758   -0.000000000
    2.094395102    1.000000000   89.623497289 -102.224719460   -0.000000000
    2.199114858    1.000000000   78.343197422 -112.216772057   -0.000000000
    2.303834613    1.000000000   66.301105827 -116.907659127   -0.000000000
    2.408554368    1.000000000   54.028068130 -116.539100222   -0.000000000
    2.513274123    1.000000000   42.066585506 -111.151102679   -0.000000000
    2.617993878    1.000000000   30.898905387 -101.307904535   -0.000000000
    2.722713633    1.000000000   21.004330948  -87.047019544   -0.000000000
    2.827433388    1.000000000   12.799755474  -69.069216209   -0.000000000
    2.932153143    1.000000000    6.659471241  -47.779691507   -0.000000000
    3.036872898    1.000000000    2.877143938  -24.237235984   -0.000000000

   -3.141592654    2.000000000    2.279852034    0.047706612   -0.000000000
   -3.036872898    2.000000000    3.593370105   24.802737121   -0.000000000
   -2.932153143    2.000000000    7.442479177   48.307029643   -0.000000000
   -2.827433388    2.000000000   13.637039594   69.593295612   -0.000000000
   -2.722713633    2.000000000   21.889786563   87.536683140   -0.000000000
   -2.617993878    2.000000000   31.827811368  101.602052822   -0.000000000
   -2.513274123    2.000000000   43.017451287  111.355394755   -0.000000000
   -2.408554368    2.000000000   54.979949403  116.423411207   -0.000000000
   -2.303834613    2.000000000   67.210005578  116.312170383   -0.000000000
   -2.199114858    2.000000000   79.145916920  111.047855748   -0.000000000
   -2.094395102    2.000000000   90.293772768  101.193106428   -0.000000000
   -1.989675347    2.000000000  100.172270247   86.780221962   -0.000000000
   -1.884955592    2.000000000  108.337691730   68.537400311   -0.000000000
   -1.780235837    2.000000000  114.457743377   47.905727479   -0.000000000
   -1.675516082    2.000000000  118.306350939   25.236059038   -0.000000000
   -1.570796327    2.000000000  119.697669794    1.336959205   -0.000000000
   -1.466076572    2.000000000  118.589578256  -22.425767699   -0.000000000
   -1.361356817    2.000000000  115.040168630  -45.118512089   -0.000000000
   -1.256637061    2.000000000  109.190514360  -66.075212687   -0.000000000
   -1.151917306    2.000000000  101.321880224  -83.761752782   -0.000000000
   -1.047197551    2.000000000   91.774282653  -98.148618972   -0.000000000
   -0.942477796    2.000000000   80.938825380 -108.043357553   -0.000000000
   -0.837758041    2.000000000   69.319758414 -112.953047375   -0.000000000
   -0.733038286    2.000000000   57.438288217 -112.974087966   -0.000000000
   -0.628318531    2.000000000   45.830384602 -107.866680804   -0.000000000
   -0.523598776    2.000000000   35.007054841  -98.000224627   -0.000000000
   -0.418879020    2.000000000   25.472543149  -83.445103702   -0.000000000
   -0.314159265    2.000000000   17.666818301  -65.077882105   -0.000000000
   -0.209439510    2.000000000   11.933616969  -44.046721473   -0.000000000
   -0.104719755    2.000000000    8.500775217  -21.277679317   -0.000000000
    0.000000000    2.000000000    7.504875885    2.162793115   -0.000000000
    0.104719755    2.000000000    8.947971115   25.213644532   -0.000000000
    0.209439510    2.000000000   12.742694716   46.971215163   -0.000000000
    0.314159265    2.000000000   18.710703380   66.677123262   -0.000000000
    0.418879020    2.000000000   26.619049275   83.765730560   -0.000000000
    0.523598776    2.000000000   36.128273304   97.258796180   -0.000000000
    0.628318531    2.000000000   46.845245500  106.796066621   -0.000000000
    0.733038286    2.000000000   58.349545182  112.032705273   -0.000000000
    0.837758041    2.000000000   70.159349412  112.636618706   -0.000000000
    0.942477796    2.000000000   81.771555365  108.290699467   -0.000000000
    1.047197551    2.000000000   92.682235244   99.240833990   -0.000000000
    1.151917306    2.000000000  102.404980205   85.624480871   -0.000000000
    1.256637061    2.000000000  110.455780659   67.547672120   -0.000000000
    1.361356817    2.000000000  116.451301474   46.480745212   -0.000000000
    1.466076572    2.000000000  120.114349441   23.063688346   -0.000000000
    1.570796327    2.000000000  121.264996803   -1.206080840   -0.000000000
    1.675516082    2.000000000  119.869532645  -25.368106946   -0.000000000
    1.780235837    2.000000000  115.995171392  -48.320965070   -0.000000000
    1.884955592    2.000000000  109.796435509  -69.649079610   -0.000000000
    1.989675347    2.000000000  101.519879039  -87.794347629   -0.000000000
    2.094395102    2.000000000   91.522833432 -102.469641354   -0.000000000
    2.199114858    2.000000000   80.216365229 -112.709356170   -0.000000000
    2.303834613    2.000000000   68.087078419 -118.070957393   -0.000000000
    2.408554368    2.000000000   55.668002155 -118.278879014   -0.000000000
    2.513274123    2.000000000   43.490906117 -113.457888179   -0.000000000
    2.617993878    2.000000000   32.101796799 -103.243070369   -0.000000000
    2.722713633    2.000000000   22.020799767  -88.579824934   -0.000000000
    2.827433388    2.000000000   13.681042393  -70.041900627   -0.000000000
    2.932153143    2.000000000    7.449562348  -48.498131611   -0.000000000
    3.036872898    2.000000000    3.584360956  -24.904124652   -0.000000000

   -3.141592654    3.000000000    4.495409668   -0.524658340   -0.000000000
   -3.036872898    3.000000000    5.761538675   24.633345876   -0.000000000
   -2.932153143    3.000000000    9.597724071   48.396629743   -0.000000000
   -2.827433388    3.000000000   15.808445378   69.913056112   -0.000000000
   -2.722713633    3.000000000   24.130690470   88.337967584   -0.000000000
   -2.617993878    3.000000000   34.167041168  102.641132785   -0.000000000
   -2.513274123    3.000000000   45.457694375  112.234003893   -0.000000000
   -2.408554368    3.000000000   57.515037923  117.085365129   -0.000000000
   -2.303834613    3.000000000   69.803894435  116.800373053   -0.000000000
   -2.199114858    3.000000000   81.803341887  111.623339211   -0.000000000
   -2.094395102    3.000000000   92.993498838  101.438456424   -0.000000000
   -1.989675347    3.000000000  102.898742939   87.041045942   -0.000000000
   -1.884955592    3.000000000  111.058862846   68.468110708   -0.000000000
   -1.780235837    3.000000000  117.135540203   47.271339693   -0.000000000
   -1.675516082    3.000000000  120.888545816   24.201263644   -0.000000000
   -1.570796327    3.000000000  122.177605933    0.373392675   -0.000000000
   -1.466076572    3.000000000  120.948972301  -23.715123115   -0.000000000
   -1.361356817    3.000000000  117.252090401  -46.495326607   -0.000000000
   -1.256637061    3.000000000  111.279706554  -67.191415315   -0.000000000
   -1.151917306    3.000000000  103.275148468  -84.998064125   -0.000000000
   -1.047197551    3.000000000   93.620989291  -98.823126080   -0.000000000
   -0.942477796    3.000000000   82.735882596 -108.274425914   -0.000000000
   -0.837758041    3.000000000   71.109319184 -112.872044898   -0.000000000
   -0.733038286    3.000000000   59.277489282 -112.279875266   -0.000000000
   -0.628318531    3.000000000   47.766078502 -106.738689014   -0.000000000
   -0.523598776    3.000000000   37.069703531  -96.777529273   -0.000000000
   -0.418879020    3.000000000   27.654727468  -82.417006347   -0.000000000
   -0.314159265    3.000000000   19.922610969  -64.792208399   -0.000000000
   -0.209439510    3.000000000   14.161482761  -44.845707170   -0.000000000
   -0.104719755    3.000000000   10.587384170  -23.050657558   -0.000000000
    0.000000000    3.000000000    9.375516318    0.013140773   -0.000000000
    0.104719755    3.000000000   10.572627742   22.942525003   -0.000000000
    0.209439510    3.000000000   14.150397543   45.082368531   -0.000000000
    0.314159265    3.000000000   19.967176659   65.602932959   -0.000000000
    0.418879020    3.000000000   27.791858143   83.278170170   -0.000000000
    0.523598776    3.000000000   37.288181809   97.317145236   -0.000000000
    0.628318531    3.000000000   48.037704219  107.194236157   -0.000000000
    0.733038286    3.000000000   59.585786299  112.564696871   -0.000000000
    0.837758041    3.000000000   71.435400184  113.019313669   -0.000000000
    0.942477796    3.000000000   83.068365120  108.363468571   -0.000000000
    1.047197551    3.000000000   93.974366550   99.167286427   -0.000000000
    1.151917306    3.000000000  103.691303727   85.676710298   -0.000000000
    1.256637061    3.000000000  111.775192068   68.137678867   -0.000000000
    1.361356817    3.000000000  117.838041562   47.166652150   -0.000000000
    1.466076572    3.000000000  121.570081310   23.955441953   -0.000000000
    1.570796327    3.000000000  122.798308398   -0.720966965   -0.000000000
    1.675516082    3.000000000  121.427496410  -25.370267028   -0.000000000
    1.780235837    3.000000000  117.521239462  -48.850203198   -0.000000000
    1.884955592    3.000000000  111.267151756  -70.197586446   -0.000000000
    1.989675347    3.000000000  102.946790322  -88.201395998   -0.000000000
    2.094395102    3.000000000   92.946643997 -102.039950754   -0.000000000
    2.199114858    3.000000000   81.724644092 -111.643622505   -0.000000000
    2.303834613    3.000000000   69.737716084 -116.485132411   -0.000000000
    2.408554368    3.000000000   57.516884429 -116.066685300   -0.000000000
    2.513274123    3.000000000   45.569912466 -111.427600889   -0.000000000
    2.617993878    3.000000000   34.353352240 -102.022683525   -0.000000000
    2.722713633    3.000000000   24.370514510  -87.967966889   -0.000000000
    2.827433388    3.000000000   16.055396966  -70.241735110   -0.000000000
    2.932153143    3.000000000    9.785515473  -49.006565208   -0.000000000
    3.036872898    3.000000000    5.864926086  -25.557079406   -0.000000000

   -3.141592654    4.000000000    6.747928502    0.403544133   -0.000000000
   -3.036872898    4.000000000    8.074975139   24.930336594   -0.000000000
   -2.932153143    4.000000000   11.905856324   47.989197144   -0.000000000
   -2.827433388    4.000000000   18.046212576   68.834919257   -0.000000000
   -2.722713633    4.000000000   26.198704205   86.417702632   -0.000000000
   -2.617993878    4.000000000   36.017510050  100.447450972   -0.000000000
   -2.513274123    4.000000000   47.089654304  110.358240766   -0.000000000
   -2.408554368    4.000000000   58.971230696  115.744543283   -0.000000000
   -2.303834613    4.000000000   71.165067646  116.236962966   -0.000000000
   -2.199114858    4.000000000   83.132152825  111.478224280   -0.000000000
   -2.094395102    4.000000000   94.358919632  102.165743077   -0.000000000
   -1.989675347    4.000000000  104.370357424   88.181883814   -0.000000000
   -1.884955592    4.000000000  112.689665336   70.150604615   -0.000000000
   -1.780235837    4.000000000  118.933900450   48.707728168   -0.000000000
   -1.675516082    4.000000000  122.822594821   25.179159197   -0.000000000
   -1.570796327    4.000000000  124.174169885    0.588427993   -0.000000000
   -1.466076572    4.000000000  122.944776868  -23.994419677   -0.000000000
   -1.361356817    4.000000000  119.187582010  -47.375433063   -0.000000000
   -1.256637061    4.000000000  113.102198288  -68.294761015   -0.000000000
   -1.151917306    4.000000000  104.998924545  -85.875762327   -0.000000000
   -1.047197551    4.000000000   95.250744353  -99.705068326   -0.000000000
   -0.942477796    4.000000000   84.287297964 -108.960556417   -0.000000000
   -0.837758041    4.000000000   72.606346831 -113.385800041   -0.000000000
   -0.733038286    4.000000000   60.721910010 -112.916351321   -0.000000000
   -0.628318531    4.000000000   49.120792897 -107.866769636   -0.000000000
   -0.523598776    4.000000000   38.308098273  -97.926308177   -0.000000000
   -0.418879020    4.000000000   28.738401535  -84.206412184   -0.000000000
   -0.314159265    4.000000000   20.813716270  -66.544658900   -0.000000000
   -0.209439510    4.000000000   14.893915269  -46.106689054   -0.000000000
   -0.104719755    4.000000000   11.230986092  -23.637867982   -0.000000000
    0.000000000    4.000000000    9.980406777   -0.109320224   -0.000000000
    0.104719755    4.000000000   11.200669052   23.357434402   -0.000000000
    0.209439510    4.000000000   14.840511499   45.960217767   -0.000000000
    0.314159265    4.000000000   20.769600666   66.820671724   -0.000000000
    0.418879020    4.000000000   28.737055621   84.676514600   -0.000000000
    0.523598776    4.000000000   38.389594326   98.923558072   -0.000000000
    0.628318531    4.000000000   49.283845873  108.376766023   -0.000000000
    0.733038286    4.000000000   60.941073940  113.337884305   -0.000000000
    0.837758041    4.000000000   72.832260106  113.061762740   -0.000000000
    0.942477796    4.000000000   84.443728937  107.838715895   -0.000000000
    1.047197551    4.000000000   95.275913597   98.329545940   -0.000000000
    1.151917306    4.000000000  104.874913222   84.449944431   -0.000000000
    1.256637061    4.000000000  112.828296129   66.841318754   -0.000000000
    1.361356817    4.000000000  118.770391575   46.227967720   -0.000000000
    1.466076572    4.000000000  122.451260778   23.703250053   -0.000000000
    1.570796327    4.000000000  123.690120525   -0.132021440   -0.000000000
    1.675516082    4.000000000  122.413353584  -24.193742542   -0.000000000
    1.780235837    4.000000000  118.643909720  -47.505163869   -0.000000000
    1.884955592    4.000000000  112.524227432  -68.851907694   -0.000000000
    1.989675347    4.000000000  104.321146266  -87.269868374   -0.000000000
    2.094395102    4.000000000   94.389085122 -101.893754940   -0.000000000
    2.199114858    4.000000000   83.163971578 -111.821075663   -0.000000000
    2.303834613    4.000000000   71.160565911 -116.614493923   -0.000000000
    2.408554368    4.000000000   58.912464336 -116.500121450   -0.000000000
    2.513274123    4.000000000   46.950365032 -111.022625026   -0.000000000
    2.617993878    4.000000000   35.812653179 -100.906324802   -0.000000000
    2.722713633    4.000000000   25.961882527  -86.502669435   -0.000000000
    2.827433388    4.000000000   17.828099320  -68.442322745   -0.000000000
    2.932153143    4.000000000   11.741067090  -47.340626325   -0.000000000
    3.036872898    4.000000000    7.991134231  -23.959435106   -0.000000000

   -3.141592654    5.000000000    6.791981488    0.530656008   -0.000000000
   -3.036872898    5.000000000    8.140660909   25.050209433   -0.000000000
   -2.932153143    5.000000000   12.013317240   48.676297144   -0.000000000
   -2.827433388    5.000000000   18.248387523   69.784606115   -0.000000000
   -2.722713633    5.000000000   26.546865638   88.070683615   -0.000000000
   -2.617993878    5.000000000   36.563359944  102.498611891   -0.000000000
   -2.513274123    5.000000000   47.850737801  112.276386979   -0.000000000
   -2.408554368    5.000000000   59.913270061  117.255297820   -0.000000000
   -2.303834613    5.000000000   72.231446261  116.940452434   -0.000000000
   -2.199114858    5.000000000   84.237734012  111.422482716   -0.000000000
   -2.094395102    5.000000000   95.397560925  101.152813993   -0.000000000
   -1.989675347    5.000000000  105.256935146   86.345714639   -0.000000000
   -1.884955592    5.000000000  113.366509740   68.040787930   -0.000000000
   -1.780235837    5.000000000  119.395959097   46.546135009   -0.000000000
   -1.675516082    5.000000000  123.063261087   23.316564615   -0.000000000
   -1.570796327    5.000000000  124.249779272   -0.752839710   -0.000000000
   -1.466076572    5.000000000  122.927202085  -24.604564186   -0.000000000
   -1.361356817    5.000000000  119.141155170  -47.520622726   -0.000000000
   -1.256637061    5.000000000  113.084974439  -67.731589508   -0.000000000
   -1.151917306    5.000000000  105.052107481  -84.931348350   -0.000000000
   -1.047197551    5.000000000   95.414390750  -98.434485078   -0.000000000
   -0.942477796    5.000000000   84.566804701 -107.945883329   -0.000000000
   -0.837758041    5.000000000   72.972432138 -112.772910882   -0.000000000
   -0.733038286    5.000000000   61.123952322 -112.769418823   -0.000000000
   -0.628318531    5.000000000   49.524253035 -108.069114379   -0.000000000
   -0.523598776    5.000000000   38.692209999  -98.045815788   -0.000000000
   -0.418879020    5.000000000   29.132320395  -83.856335667   -0.000000000
   -0.314159265    5.000000000   21.248437206  -66.153036725   -0.000000000
   -0.209439510    5.000000000   15.385177427  -45.361093348   -0.000000000
   -0.104719755    5.000000000   11.818769856  -22.575190565   -0.000000000
    0.000000000    5.000000000   10.680917598    1.026613267   -0.000000000
    0.104719755    5.000000000   12.009941345   24.136974992   -0.000000000
    0.209439510    5.000000000   15.706492328   46.185531384   -0.000000000
    0.314159265    5.000000000   21.613463002   66.222679852   -0.000000000
    0.418879020    5.000000000   29.487467842   83.654621125   -0.000000000
    0.523598776    5.000000000   38.989244575   97.305260371   -0.000000000
    0.628318531    5.000000000   49.714642937  106.874764966   -0.000000000
    0.733038286    5.000000000   61.221414049  112.070385642   -0.000000000
    0.837758041    5.000000000   73.033968271  112.839628768   -0.000000000
    0.942477796    5.000000000   84.675587648  108.660561863   -0.000000000
    1.047197551    5.000000000   95.608662602   99.614014820   -0.000000000
    1.151917306    5.000000000  105.375758647   86.245020555   -0.000000000
    1.256637061    5.000000000  113.527728543   68.847195539   -0.000000000
    1.361356817    5.000000000  119.670899801   47.965781244   -0.000000000
    1.466076572    5.000000000  123.500491718   24.995253694   -0.000000000
    1.570796327    5.000000000  124.827316599    0.313695631   -0.000000000
    1.675516082    5.000000000  123.585622493  -24.101874822   -0.000000000
    1.780235837    5.000000000  119.801985616  -47.967484188   -0.000000000
    1.884955592    5.000000000  113.611469438  -69.835751248   -0.000000000
    1.989675347    5.000000000  105.285212916  -88.516344165   -0.000000000
    2.094395102    5.000000000   95.202593587 -103.350633177   -0.000000000
    2.199114858    5.000000000   83.785249183 -113.542851128   -0.000000000
    2.303834613    5.000000000   71.610907739 -118.130168663   -0.000000000
    2.408554368    5.000000000   59.228949026 -117.526882128   -0.000000000
    2.513274123    5.000000000   47.164555265 -112.074115633   -0.000000000
    2.617993878    5.000000000   35.933941340 -101.675697846   -0.000000000
    2.722713633    5.000000000   26.021874495  -86.984725676   -0.000000000
    2.827433388    5.000000000   17.850256614  -68.609513062   -0.000000000
    2.932153143    5.000000000   11.763753016  -47.202326143   -0.000000000
    3.036872898    5.000000000    8.023429120  -23.917850646   -0.000000000

   -3.141592654    6.000000000    7.683048015   -0.868088189   -0.000000000
   -3.036872898    6.000000000    8.874695783   23.607924936   -0.000000000
   -2.932153143    6.000000000   12.615135851   47.592469974   -0.000000000
   -2.827433388    6.000000000   18.757604229   69.328329766   -0.000000000
   -2.722713633    6.000000000   27.018758320   87.977969928   -0.000000000
   -2.617993878    6.000000000   37.034818675  102.576398043   -0.000000000
   -2.513274123    6.000000000   48.347053867  112.666579835   -0.000000000
   -2.408554368    6.000000000   60.443645162  117.515111241   -0.000000000
   -2.303834613    6.000000000   72.790933059  117.486680990   -0.000000000
   -2.199114858    6.000000000   84.871920716  112.320355744   -0.000000000
   -2.094395102    6.000000000   96.155955962  102.333879200   -0.000000000
   -1.989675347    6.000000000  106.132459300   87.330386734   -0.000000000
   -1.884955592    6.000000000  114.349213950   68.981842778   -0.000000000
   -1.780235837    6.000000000  120.473875940   47.721677883   -0.000000000
   -1.675516082    6.000000000  124.265387654   24.428059990   -0.000000000
   -1.570796327    6.000000000  125.540270964   -0.043281429   -0.000000000
   -1.466076572    6.000000000  124.238761053  -24.687047833   -0.000000000
   -1.361356817    6.000000000  120.432866126  -47.538145491   -0.000000000
   -1.256637061    6.000000000  114.366545019  -67.852253464   -0.000000000
   -1.151917306    6.000000000  106.321989934  -85.127727882   -0.000000000
   -1.047197551    6.000000000   96.662337701  -98.701557678   -0.000000000
   -0.942477796    6.000000000   85.776928367 -108.429213956   -0.000000000
   -0.837758041    6.000000000   74.127203630 -113.273219310   -0.000000000
   -0.733038286    6.000000000   62.214028570 -113.511863044   -0.000000000
   -0.628318531    6.000000000   50.553321170 -108.462336623   -0.000000000
   -0.523598776    6.000000000   39.670328315  -98.655558066   -0.000000000
   -0.418879020    6.000000000   30.035940550  -84.576621580   -0.000000000
   -0.314159265    6.000000000   22.085471545  -66.750270089   -0.000000000
   -0.209439510    6.000000000   16.161129689  -45.886017236   -0.000000000
   -0.104719755    6.000000000   12.522654160  -23.220338033   -0.000000000
    0.000000000    6.000000000   11.332468865    0.404337289   -0.000000000
    0.104719755    6.000000000   12.605038811   23.748962873   -0.000000000
    0.209439510    6.000000000   16.279836496   46.127043617   -0.000000000
    0.314159265    6.000000000   22.181863997   66.319832561   -0.000000000
    0.418879020    6.000000000   30.058399179   83.596035205   -0.000000000
    0.523598776    6.000000000   39.591549394   97.871411891   -0.000000000
    0.628318531    6.000000000   50.412990520  108.083688945   -0.000000000
    0.733038286    6.000000000   62.038914626  113.283628576   -0.000000000
    0.837758041    6.000000000   73.952788903  113.566347283   -0.000000000
    0.942477796    6.000000000   85.626336134  108.603614272   -0.000000000
    1.047197551    6.000000000   96.536849422   98.926884329   -0.000000000
    1.151917306    6.000000000  106.195153832   84.845778142   -0.000000000
    1.256637061    6.000000000  114.186155947   67.156975828   -0.000000000
    1.361356817    6.000000000  120.134473657   46.007465786   -0.000000000
    1.466076572    6.000000000  123.771720191   23.232788026   -0.000000000
    1.570796327    6.000000000  124.948739471   -1.037234677   -0.000000000
    1.675516082    6.000000000  123.596940810  -24.729975465   -0.000000000
    1.780235837    6.000000000  119.790578829  -47.749783591   -0.000000000
    1.884955592    6.000000000  113.656702097  -69.092885554   -0.000000000
    1.989675347    6.000000000  105.442093749  -87.575876512   -0.000000000
    2.094395102    6.000000000   95.482232594 -101.920084859   -0.000000000
    2.199114858    6.000000000   84.270946920 -111.383277100   -0.000000000
    2.303834613    6.000000000   72.299716258 -116.301712945   -0.000000000
    2.408554368    6.000000000   60.098811523 -115.965082253   -0.000000000
    2.513274123    6.000000000   48.189385652 -110.802777623   -0.000000000
    2.617993878    6.000000000   37.061468563 -100.957778363   -0.000000000
    2.722713633    6.000000000   27.207701787  -86.549092546   -0.000000000
    2.827433388    6.000000000   19.038540249  -68.845872792   -0.000000000
    2.932153143    6.000000000   12.892614865  -48.042227874   -0.000000000
    3.036872898    6.000000000    9.047034007  -25.110386044   -0.000000000

   -3.141592654    7.000000000    8.322556513    0.451803727   -0.000000000
   -3.036872898    7.000000000    9.643816943   24.594101405   -0.000000000
   -2.932153143    7.000000000   13.438650278   47.725008380   -0.000000000
   -2.827433388    7.000000000   19.566761724   68.858920715   -0.000000000
   -2.722713633    7.000000000   27.760139648   87.034430799   -0.000000000
   -2.617993878    7.000000000   37.671266747  101.598913205   -0.000000000
   -2.513274123    7.000000000   48.887294901  111.737248186   -0.000000000
   -2.408554368    7.000000000   60.906597094  116.918277814   -0.000000000
   -2.303834613    7.000000000   73.207289813  117.183490778   -0.000000000
   -2.199114858    7.000000000   85.267132086  112.325861172   -0.000000000
   -2.094395102    7.000000000   96.554619524  102.477595011   -0.000000000
   -1.989675347    7.000000000  106.565836128   88.097255691   -0.000000000
   -1.884955592    7.000000000  114.846482118   69.686569809   -0.000000000
   -1.780235837    7.000000000  121.044538416   48.216168339   -0.000000000
   -1.675516082    7.000000000  124.876745688   24.548848346   -0.000000000
   -1.570796327    7.000000000  126.147866657   -0.172589651   -0.000000000
   -1.466076572    7.000000000  124.855170822  -24.380494737   -0.000000000
   -1.361356817    7.000000000  121.077858674  -47.610628936   -0.000000000
   -1.256637061    7.000000000  114.977138736  -68.424790362   -0.000000000
   -1.151917306    7.000000000  106.858639891  -86.001147285   -0.000000000
   -1.047197551    7.000000000   97.077459377  -99.840307789   -0.000000000
   -0.942477796    7.000000000   86.083105859 -109.172424713   -0.000000000
   -0.837758041    7.000000000   74.368302426 -113.648768449   -0.000000000
   -0.733038286    7.000000000   62.442541364 -113.285218399   -0.000000000
   -0.628318531    7.000000000   50.817870188 -108.100463712   -0.000000000
   -0.523598776    7.000000000   39.999726464  -97.786923115   -0.000000000
   -0.418879020    7.000000000   30.463872501  -83.740114024   -0.000000000
   -0.314159265    7.000000000   22.598188161  -66.068082870   -0.000000000
   -0.209439510    7.000000000   16.723190215  -45.740033154   -0.000000000
   -0.104719755    7.000000000   13.088263482  -23.398059256   -0.000000000
    0.000000000    7.000000000   11.878219612    0.334614920   -0.000000000
    0.104719755    7.000000000   13.145675539   23.733094293   -0.000000000
    0.209439510    7.000000000   16.821923527   46.342856692   -0.000000000
    0.314159265    7.000000000   22.765786379   66.754413961   -0.000000000
    0.418879020    7.000000000   30.697287530   84.194797363   -0.000000000
    0.523598776    7.000000000   40.266814380   97.867164377   -0.000000000
    0.628318531    7.000000000   51.063609860  107.554227912   -0.000000000
    0.733038286    7.000000000   62.622022222  112.415499781   -0.000000000
    0.837758041    7.000000000   74.447800648  112.785859187   -0.000000000
    0.942477796    7.000000000   86.075033222  108.426542110   -0.000000000
    1.047197551    7.000000000   96.989419218   99.334764228   -0.000000000
    1.151917306    7.000000000  106.708257058   85.550911240   -0.000000000
    1.256637061    7.000000000  114.778135251   68.129896650   -0.000000000
    1.361356817    7.000000000  120.863132971   47.359306844   -0.000000000
    1.466076572    7.000000000  124.631598864   24.252306629   -0.000000000
    1.570796327    7.000000000  125.897937490   -0.276583647   -0.000000000
    1.675516082    7.000000000  124.568360580  -25.023577223   -0.000000000
    1.780235837    7.000000000  120.695509309  -48.665048546   -0.000000000
    1.884955592    7.000000000  114.455135346  -70.145951991   -0.000000000
    1.989675347    7.000000000  106.135836474  -88.298704621   -0.000000000
    2.094395102    7.000000000   96.113119376 -102.385686033   -0.000000000
    2.199114858    7.000000000   84.826548701 -112.297948583   -0.000000000
    2.303834613    7.000000000   72.780169156 -117.047705262   -0.000000000
    2.408554368    7.000000000   60.505569735 -116.639933162   -0.000000000
    2.513274123    7.000000000   48.527718658 -111.231654878   -0.000000000
    2.617993878    7.000000000   37.363456891 -101.240781846   -0.000000000
    2.722713633    7.000000000   27.488538767  -86.609451537   -0.000000000
    2.827433388    7.000000000   19.348392674  -68.342361605   -0.000000000
    2.932153143    7.000000000   13.278423473  -47.174738261   -0.000000000
    3.036872898    7.000000000    9.553434435  -23.895905604   -0.000000000

   -3.141592654    8.000000000    8.741851298   -0.343418758   -0.000000000
   -3.036872898    8.000000000    9.983066046   24.035026445   -0.000000000
   -2.932153143    8.000000000   13.733238107   47.372798783   -0.000000000
   -2.827433388    8.000000000   19.831576973   68.606237150   -0.000000000
   -2.722713633    8.000000000   28.010157972   87.041844109   -0.000000000
   -2.617993878    8.000000000   37.936809916  101.834486978   -0.000000000
   -2.513274123    8.000000000   49.181233798  112.093827672   -0.000000000
   -2.408554368    8.000000000   61.244900749  117.323271086   -0.000000000
   -2.303834613    8.000000000   73.575607001  117.254069154   -0.000000000
   -2.199114858    8.000000000   85.594272380  111.523108919   -0.000000000
   -2.094395102    8.000000000   96.765675047  101.024279702   -0.000000000
   -1.989675347    8.000000000  106.575625934   85.757192082   -0.000000000
   -1.884955592    8.000000000  114.606872010   67.054255172   -0.000000000
   -1.780235837    8.000000000  120.538721277   45.722762778   -0.000000000
   -1.675516082    8.000000000  124.136993714   22.977421259   -0.000000000
   -1.570796327    8.000000000  125.322544240   -0.386997863   -0.000000000
   -1.466076572    8.000000000  124.070693296  -23.513224120   -0.000000000
   -1.361356817    8.000000000  120.421989569  -45.916786342   -0.000000000
   -1.256637061    8.000000000  114.524783969  -66.171370078   -0.000000000
   -1.151917306    8.000000000  106.638099933  -83.908014643   -0.000000000
   -1.047197551    8.000000000   97.096989931  -97.738655114   -0.000000000
   -0.942477796    8.000000000   86.319152971 -107.345546223   -0.000000000
   -0.837758041    8.000000000   74.759547285 -112.425428533   -0.000000000
   -0.733038286    8.000000000   62.933133264 -112.554108743   -0.000000000
   -0.628318531    8.000000000   51.362467460 -107.565671914   -0.000000000
   -0.523598776    8.000000000   40.549665810  -98.181161727   -0.000000000
   -0.418879020    8.000000000   30.957024107  -84.318328854   -0.000000000
   -0.314159265    8.000000000   22.998920349  -67.075196699   -0.000000000
   -0.209439510    8.000000000   17.013562634  -46.885143195   -0.000000000
   -0.104719755    8.000000000   13.244323171  -24.877772479   -0.000000000
    0.000000000    8.000000000   11.835269030   -1.936840768   -0.000000000
    0.104719755    8.000000000   12.862757203   21.392181229   -0.000000000
    0.209439510    8.000000000   16.300766787   44.150874373   -0.000000000
    0.314159265    8.000000000   22.048692852   65.205035791   -0.000000000
    0.418879020    8.000000000   29.854478875   83.449667053   -0.000000000
    0.523598776    8.000000000   39.396929997   98.200448376   -0.000000000
    0.628318531    8.000000000   50.273764806  108.790099293   -0.000000000
    0.733038286    8.000000000   62.014098714  114.433314101   -0.000000000
    0.837758041    8.000000000   74.085068287  115.083230943   -0.000000000
    0.942477796    8.000000000   85.945984114  110.635223001   -0.000000000
    1.047197551    8.000000000   97.063693443  100.942655007   -0.000000000
    1.151917306    8.000000000  106.948722458   87.073013575   -0.000000000
    1.256637061    8.000000000  115.164949596   69.139925015   -0.000000000
    1.361356817    8.000000000  121.344692349   48.252536128   -0.000000000
    1.466076572    8.000000000  125.196981590   25.031279920   -0.000000000
    1.570796327    8.000000000  126.546632000    0.604948144   -0.000000000
    1.675516082    8.000000000  125.329602890  -23.808858595   -0.000000000
    1.780235837    8.000000000  121.596232630  -47.217299977   -0.000000000
    1.884955592    8.000000000  115.509968423  -68.581520509   -0.000000000
    1.989675347    8.000000000  107.337204095  -87.055152715   -0.000000000
    2.094395102    8.000000000   97.415846366 -101.723442906   -0.000000000
    2.199114858    8.000000000   86.186904426 -111.950762674   -0.000000000
    2.303834613    8.000000000   74.138732097 -117.254098032   -0.000000000
    2.408554368    8.000000000   61.793694896 -117.555217252   -0.000000000
    2.513274123    8.000000000   49.703622813 -112.517037305   -0.000000000
    2.617993878    8.000000000   38.408405043 -102.463054670   -0.000000000
    2.722713633    8.000000000   28.406646745  -88.029147417   -0.000000000
    2.827433388    8.000000000   20.120545863  -69.538960163   -0.000000000
    2.932153143    8.000000000   13.919347476  -48.393918745   -0.000000000
    3.036872898    8.000000000   10.069069378  -24.874679020   -0.000000000

   -3.141592654    9.000000000    9.260774489   -0.163862191   -0.000000000
   -3.036872898    9.000000000   10.549865492   24.604654492   -0.000000000
   -2.932153143    9.000000000   14.366449469   47.936606480   -0.000000000
   -2.827433388    9.000000000   20.537952687   69.447598199   -0.000000000
   -2.722713633    9.000000000   28.790555897   87.525126332   -0.000000000
   -2.617993878    9.000000000   38.730383494  101.667681914   -0.000000000
   -2.513274123    9.000000000   49.923344711  111.329440563   -0.000000000
   -2.408554368    9.000000000   61.883961933  116.237543398   -0.000000000
   -2.303834613    9.000000000   74.090062282  116.115730758   -0.000000000
   -2.199114858    9.000000000   86.038300590  111.221182862   -0.000000000
   -2.094395102    9.000000000   97.219198925  101.552257238   -0.000000000
   -1.989675347    9.000000000  107.141456134   87.403535445   -0.000000000
   -1.884955592    9.000000000  115.383376423   69.346994914   -0.000000000
   -1.780235837    9.000000000  121.570196054   48.318749654   -0.000000000
   -1.675516082    9.000000000  125.419819424   24.938945578   -0.000000000
   -1.570796327    9.000000000  126.765615065    0.549294150   -0.000000000
   -1.466076572    9.000000000  125.526606938  -24.134493845   -0.000000000
   -1.361356817    9.000000000  121.769587988  -47.335932358   -0.000000000
   -1.256637061    9.000000000  115.690490456  -68.332637647   -0.000000000
   -1.151917306    9.000000000  107.579531698  -85.975231968   -0.000000000
   -1.047197551    9.000000000   97.830830103  -99.361442931   -0.000000000
   -0.942477796    9.000000000   86.929546990 -108.175254527   -0.000000000
   -0.837758041    9.000000000   75.340443810 -112.340685146   -0.000000000
   -0.733038286    9.000000000   63.554932767 -111.805133490   -0.000000000
   -0.628318531    9.000000000   52.075895925 -106.569913452   -0.000000000
   -0.523598776    9.000000000   41.389117472  -96.875326465   -0.000000000
   -0.418879020    9.000000000   31.931483700  -83.080728545   -0.000000000
   -0.314159265    9.000000000   24.094491769  -65.916565758   -0.000000000
   -0.209439510    9.000000000   18.223923215  -45.821477545   -0.000000000
   -0.104719755    9.000000000   14.577594992  -23.622166326   -0.000000000
    0.000000000    9.000000000   13.311360845   -0.448592240   -0.000000000
    0.104719755    9.000000000   14.499779255   22.984485069   -0.000000000
    0.209439510    9.000000000   18.102758833   45.539140985   -0.000000000
    0.314159265    9.000000000   23.964772039   66.029614652   -0.000000000
    0.418879020    9.000000000   31.835204898   83.696360569   -0.000000000
    0.523598776    9.000000000   41.368262296   97.759704443   -0.000000000
    0.628318531    9.000000000   52.160880461  107.757008754   -0.000000000
    0.733038286    9.000000000   63.764039928  112.945149720   -0.000000000
    0.837758041    9.000000000   75.650995226  113.250773611   -0.000000000
    0.942477796    9.000000000   87.296526879  108.499037950   -0.000000000
    1.047197551    9.000000000   98.196481310   98.939162769   -0.000000000
    1.151917306    9.000000000  107.852369120   84.950657389   -0.000000000
    1.256637061    9.000000000  115.843189248   67.155067299   -0.000000000
    1.361356817    9.000000000  121.813778051   46.537798425   -0.000000000
    1.466076572    9.000000000  125.510640327   23.865786978   -0.000000000
    1.570796327    9.000000000  126.781032374    0.230962101   -0.000000000
    1.675516082    9.000000000  125.544212072  -23.695288039   -0.000000000
    1.780235837    9.000000000  121.853965105  -46.431659735   -0.000000000
    1.884955592    9.000000000  115.870363504  -67.424595924   -0.000000000
    1.989675347    9.000000000  107.818993522  -85.796753023   -0.000000000
    2.094395102    9.000000000   98.011090555 -100.834252386   -0.000000000
    2.199114858    9.000000000   86.869866304 -111.281810724   -0.000000000
    2.303834613    9.000000000   74.871913278 -117.087138183   -0.000000000
    2.408554368    9.000000000   62.542421457 -117.535313564   -0.000000000
    2.513274123    9.000000000   50.436719268 -112.718594835   -0.000000000
    2.617993878    9.000000000   39.107071077 -102.796944471   -0.000000000
    2.722713633    9.000000000   29.049708016  -88.636856753   -0.000000000
    2.827433388    9.000000000   20.703597059  -70.165630136   -0.000000000
    2.932153143    9.000000000   14.452246588  -48.702576241   -0.000000000
    3.036872898    9.000000000   10.579820381  -25.020196101   -0.000000000

   -3.141592654   10.000000000   10.107651381   -0.124894481   -0.000000000
   -3.036872898   10.000000000   11.389273573   24.641025144   -0.000000000
   -2.932153143   10.000000000   15.208148959   48.022169967   -0.000000000
   -2.827433388   10.000000000   21.378430687   69.487872184   -0.000000000
   -2.722713633   10.000000000   29.652209988   87.830074023   -0.000000000
   -2.617993878   10.000000000   39.663256258  102.601110558   -0.000000000
   -2.513274123   10.000000000   50.982649949  112.771542523   -0.000000000
   -2.408554368   10.000000000   63.105958167  117.852810757   -0.000000000
   -2.303834613   10.000000000   75.487506655  117.899517619   -0.000000000
   -2.199114858   10.000000000   87.600282942  112.546784914   -0.000000000
   -2.094395102   10.000000000   98.890847875  102.092466620   -0.000000000
   -1.989675347   10.000000000  108.845712270   87.298730600   -0.000000000
   -1.884955592   10.000000000  117.043278308   68.718127124   -0.000000000
   -1.780235837   10.000000000  123.141408526   47.207212657   -0.000000000
   -1.675516082   10.000000000  126.889150385   24.039141376   -0.000000000
   -1.570796327   10.000000000  128.155897689    0.216375304   -0.000000000
   -1.466076572   10.000000000  126.916682665  -23.814045056   -0.000000000
   -1.361356817   10.000000000  123.221979446  -46.537765405   -0.000000000
   -1.256637061   10.000000000  117.239050360  -67.388658862   -0.000000000
   -1.151917306   10.000000000  109.213271470  -85.191639126   -0.000000000
   -1.047197551   10.000000000   99.508336906  -99.494771873   -0.000000000
   -0.942477796   10.000000000   88.530457747 -109.435560525   -0.000000000
   -0.837758041   10.000000000   76.753748228 -114.661903519   -0.000000000
   -0.733038286   10.000000000   64.711433423 -114.472272417   -0.000000000
   -0.628318531   10.000000000   52.944358781 -109.353952859   -0.000000000
   -0.523598776   10.000000000   41.996238109  -98.987066485   -0.000000000
   -0.418879020   10.000000000   32.333279191  -84.730080773   -0.000000000
   -0.314159265   10.000000000   24.378280596  -66.612855846   -0.000000000
   -0.209439510   10.000000000   18.464362771  -45.890656759   -0.000000000
   -0.104719755   10.000000000   14.824624296  -23.271545310   -0.000000000
    0.000000000   10.000000000   13.629319571    0.337493585   -0.000000000
    0.104719755   10.000000000   14.889983613   23.699594388   -0.000000000
    0.209439510   10.000000000   18.557941977   46.052965031   -0.000000000
    0.314159265   10.000000000   24.474988889   66.522585424   -0.000000000
    0.418879020   10.000000000   32.360308606   83.636119052   -0.000000000
    0.523598776   10.000000000   41.889384430   97.742647493   -0.000000000
    0.628318531   10.000000000   52.670593671  107.456201761   -0.000000000
    0.733038286   10.000000000   64.243925494  112.836194408   -0.000000000
    0.837758041   10.000000000   76.127471676  113.295279209   -0.000000000
    0.942477796   10.000000000   87.808391750  108.856435399   -0.000000000
    1.047197551   10.000000000   98.764577537   99.544168807   -0.000000000
    1.151917306   10.000000000  108.513571206   85.924900088   -0.000000000
    1.256637061   10.000000000  116.627244639   68.361761944   -0.000000000
    1.361356817   10.000000000  122.691599682   47.222860934   -0.000000000
    1.466076572   10.000000000  126.424541020   23.841704162   -0.000000000
    1.570796327   10.000000000  127.648854297   -0.527555136   -0.000000000
    1.675516082   10.000000000  126.317771222  -24.793171808   -0.000000000
    1.780235837   10.000000000  122.485588445  -48.212508841   -0.000000000
    1.884955592   10.000000000  116.320942126  -69.255291049   -0.000000000
    1.989675347   10.000000000  108.106188902  -87.103015924   -0.000000000
    2.094395102   10.000000000   98.197968346 -101.369254346   -0.000000000
    2.199114858   10.000000000   87.036216581 -110.996465328   -0.000000000
    2.303834613   10.000000000   75.089538218 -116.366342688   -0.000000000
    2.408554368   10.000000000   62.859057049 -116.362567799   -0.000000000
    2.513274123   10.000000000   50.894591148 -111.432740949   -0.000000000
    2.617993878   10.000000000   39.690071968 -101.864956564   -0.000000000
    2.722713633   10.000000000   29.731510203  -87.704928831   -0.000000000
    2.827433388   10.000000000   21.464219134  -69.661020345   -0.000000000
    2.932153143   10.000000000   15.256525704  -48.408249766   -0.000000000
    3.036872898   10.000000000   11.415570429  -24.731865708   -0.000000000

   -3.141592654   11.000000000   11.011545470    0.261438525   -0.000000000
   -3.036872898   11.000000000   12.329282104   24.825586476   -0.000000000
   -2.932153143   11.000000000   16.175159404   48.229211283   -0.000000000
   -2.827433388   11.000000000   22.361431309   69.490910199   -0.000000000
   -2.722713633   11.000000000   30.604377551   87.317242769   -0.000000000
   -2.617993878   11.000000000   40.519288500  101.346722214   -0.000000000
   -2.513274123   11.000000000   51.674934515  111.017126536   -0.000000000
   -2.408554368   11.000000000   63.601231664  115.780845836   -0.000000000
   -2.303834613   11.000000000   75.779317214  115.983902238   -0.000000000
   -2.199114858   11.000000000   87.695978844  110.951993493   -0.000000000
   -2.094395102   11.000000000   98.843928996  101.203235283   -0.000000000
   -1.989675347   11.000000000  108.717267160   86.786249066   -0.000000000
   -1.884955592   11.000000000  116.885402563   68.528669766   -0.000000000
   -1.780235837   11.000000000  122.957014143   47.004577576   -0.000000000
   -1.675516082   11.000000000  126.673766436   23.572875798   -0.000000000
   -1.570796327   11.000000000  127.852249492   -1.029498827   -0.000000000
   -1.466076572   11.000000000  126.473317246  -25.353869304   -0.000000000
   -1.361356817   11.000000000  122.571444991  -48.578938066   -0.000000000
   -1.256637061   11.000000000  116.395162517  -68.819731865   -0.000000000
   -1.151917306   11.000000000  108.259262895  -85.887536849   -0.000000000
   -1.047197551   11.000000000   98.555465887  -98.882692806   -0.000000000
   -0.942477796   11.000000000   87.692834734 -107.710288738   -0.000000000
   -0.837758041   11.000000000   76.168064208 -111.624394723   -0.000000000
   -0.733038286   11.000000000   64.449988756 -111.294454532   -0.000000000
   -0.628318531   11.000000000   53.014402114 -106.288063610   -0.000000000
   -0.523598776   11.000000000   42.347550386  -96.769286274   -0.000000000
   -0.418879020   11.000000000   32.868967322  -83.546555818   -0.000000000
   -0.314159265   11.000000000   24.980099565  -66.520294008   -0.000000000
   -0.209439510   11.000000000   19.057993833  -46.221697612   -0.000000000
   -0.104719755   11.000000000   15.372013772  -23.953123471   -0.000000000
    0.000000000   11.000000000   14.096834701   -0.441230604   -0.000000000
    0.104719755   11.000000000   15.296174773   23.240777897   -0.000000000
    0.209439510   11.000000000   18.928836136   45.812448465   -0.000000000
    0.314159265   11.000000000   24.840701729   66.728446596   -0.000000000
    0.418879020   11.000000000   32.793562885   84.700798558   -0.000000000
    0.523598776   11.000000000   42.446714856   98.978580432   -0.000000000
    0.628318531   11.000000000   53.368872778  108.969564177   -0.000000000
    0.733038286   11.000000000   65.093737369  114.203380768   -0.000000000
    0.837758041   11.000000000   77.093517850  114.250854585   -0.000000000
    0.942477796   11.000000000   88.829493980  109.021699097   -0.000000000
    1.047197551   11.000000000   99.787728435   99.389418482   -0.000000000
    1.151917306   11.000000000  109.473098197   84.994408139   -0.000000000
    1.256637061   11.000000000  117.467271415   67.118623763   -0.000000000
    1.361356817   11.000000000  123.407351094   45.856438312   -0.000000000
    1.466076572   11.000000000  127.009651564   22.658355736   -0.000000000
    1.570796327   11.000000000  128.122526297   -1.493781617   -0.000000000
    1.675516082   11.000000000  126.691918560  -25.756694254   -0.000000000
    1.780235837   11.000000000  122.765901197  -48.988132791   -0.000000000
    1.884955592   11.000000000  116.509301297  -69.998525214   -0.000000000
    1.989675347   11.000000000  108.224914224  -87.666584554   -0.000000000
    2.094395102   11.000000000   98.253272241 -101.949803488   -0.000000000
    2.199114858   11.000000000   87.048981675 -111.204411261   -0.000000000
    2.303834613   11.000000000   75.131098398 -115.600537114   -0.000000000
    2.408554368   11.000000000   62.988882590 -115.325326657   -0.000000000
    2.513274123   11.000000000   51.136201956 -110.217356576   -0.000000000
    2.617993878   11.000000000   40.068727838 -100.356682200   -0.000000000
    2.722713633   11.000000000   30.262746113  -86.311162932   -0.000000000
    2.827433388   11.000000000   22.129801175  -68.327674748   -0.000000000
    2.932153143   11.000000000   16.043879534  -47.372579671   -0.000000000
    3.036872898   11.000000000   12.277924500  -24.273273449   -0.000000000

   -3.141592654   12.000000000   10.852846792    0.461302398   -0.000000000
   -3.036872898   12.000000000   12.194885797   25.037269736   -0.000000000
   -2.932153143   12.000000000   16.068165015   48.573703739   -0.000000000
   -2.827433388   12.000000000   22.287184830   69.718340237   -0.000000000
   -2.722713633   12.000000000   30.554592522   87.596144351   -0.000000000
   -2.617993878   12.000000000   40.510234743  101.666609792   -0.000000000
   -2.513274123   12.000000000   51.707979808  111.373263172   -0.000000000
   -2.408554368   12.000000000   63.674924545  116.267185454   -0.000000000
   -2.303834613   12.000000000   75.885469369  116.146529034   -0.000000000
   -2.199114858   12.000000000   87.831926709  111.198864799   -0.000000000
   -2.094395102   12.000000000   98.997368275  101.297500628   -0.000000000
   -1.989675347   12.000000000  108.890557113   87.002716298   -0.000000000
   -1.884955592   12.000000000  117.093944735   69.032151985   -0.000000000
   -1.780235837   12.000000000  123.222416266   47.651464019   -0.000000000
   -1.675516082   12.000000000  126.996004562   24.213830390   -0.000000000
   -1.570796327   12.000000000  128.256834176   -0.185464721   -0.000000000
   -1.466076572   12.000000000  126.974535921  -24.236707023   -0.000000000
   -1.361356817   12.000000000  123.209326037  -47.484751310   -0.000000000
   -1.256637061   12.000000000  117.128331545  -68.202712761   -0.000000000
   -1.151917306   12.000000000  109.046607476  -85.518467145   -0.000000000
   -1.047197551   12.000000000   99.355203306  -98.907983062   -0.000000000
   -0.942477796   12.000000000   88.468992945 -108.221741591   -0.000000000
   -0.837758041   12.000000000   76.854051785 -112.814277209   -0.000000000
   -0.733038286   12.000000000   64.987713170 -112.868015871   -0.000000000
   -0.628318531   12.000000000   53.398779090 -107.667233509   -0.000000000
   -0.523598776   12.000000000   42.579068903  -98.198242964   -0.000000000
   -0.418879020   12.000000000   32.998708775  -84.127639511   -0.000000000
   -0.314159265   12.000000000   25.085170701  -66.500326077   -0.000000000
   -0.209439510   12.000000000   19.183950338  -45.828912804   -0.000000000
   -0.104719755   12.000000000   15.555290273  -23.178161904   -0.000000000
    0.000000000   12.000000000   14.347849110    0.140509812   -0.000000000
    0.104719755   12.000000000   15.592885504   23.606389555   -0.000000000
    0.209439510   12.000000000   19.251176235   46.122766902   -0.000000000
    0.314159265   12.000000000   25.177630102   66.670372756   -0.000000000
    0.418879020   12.000000000   33.106337154   84.238959032   -0.000000000
    0.523598776   12.000000000   42.703709712   98.475723059   -0.000000000
    0.628318531   12.000000000   53.557768451  108.040341745   -0.000000000
    0.733038286   12.000000000   65.186579243  113.187282407   -0.000000000
    0.837758041   12.000000000   77.088986847  113.312530554   -0.000000000
    0.942477796   12.000000000   88.742041811  108.290750565   -0.000000000
    1.047197551   12.000000000   99.608867485   98.514602766   -0.000000000
    1.151917306   12.000000000  109.241742722   84.662503638   -0.000000000
    1.256637061   12.000000000  117.219337934   67.138113133   -0.000000000
    1.361356817   12.000000000  123.196849252   46.563662475   -0.000000000
    1.466076572   12.000000000  126.872279492   23.506539953   -0.000000000
    1.570796327   12.000000000  128.078846830   -0.526958406   -0.000000000
    1.675516082   12.000000000  126.766157720  -24.566098428   -0.000000000
    1.780235837   12.000000000  122.965575459  -47.740465654   -0.000000000
    1.884955592   12.000000000  116.832459133  -68.991519517   -0.000000000
    1.989675347   12.000000000  108.614360860  -87.316926530   -0.000000000
    2.094395102   12.000000000   98.681609258 -101.773557087   -0.000000000
    2.199114858   12.000000000   87.467399482 -111.712700584   -0.000000000
    2.303834613   12.000000000   75.458449515 -116.718074465   -0.000000000
    2.408554368   12.000000000   63.208905284 -116.435271054   -0.000000000
    2.513274123   12.000000000   51.246661967 -111.137591053   -0.000000000
    2.617993878   12.000000000   40.079907707 -101.289130080   -0.000000000
    2.722713633   12.000000000   30.197727034  -86.983903469   -0.000000000
    2.827433388   12.000000000   22.003999129  -68.848079201   -0.000000000
    2.932153143   12.000000000   15.880832118  -47.578406642   -0.000000000
    3.036872898   12.000000000   12.104808058  -24.184016131   -0.000000000

   -3.141592654   13.000000000   13.832550491    0.297275541   -0.000000000
   -3.036872898   13.000000000   15.137767165   24.546948271   -0.000000000
   -2.932153143   13.000000000   18.932087154   47.564534919   -0.000000000
   -2.827433388   13.000000000   25.031849603   68.416528384   -0.000000000
   -2.722713633   13.000000000   33.181513254   86.531701030   -0.000000000
   -2.617993878   13.000000000   43.014721235  100.718699788   -0.000000000
   -2.513274123   13.000000000   54.130576825  110.805152688   -0.000000000
   -2.408554368   13.000000000   66.036549836  116.101460982   -0.000000000
   -2.303834613   13.000000000   78.265144815  116.486612992   -0.000000000
   -2.199114858   13.000000000   90.256824842  111.722866351   -0.000000000
   -2.094395102   13.000000000  101.487238576  102.013529245   -0.000000000
   -1.989675347   13.000000000  111.465784894   87.815735617   -0.000000000
   -1.884955592   13.000000000  119.741693550   69.528537131   -0.000000000
   -1.780235837   13.000000000  125.909842262   48.020211877   -0.000000000
   -1.675516082   13.000000000  129.727201883   24.543953815   -0.000000000
   -1.570796327   13.000000000  130.999693391   -0.126744431   -0.000000000
   -1.466076572   13.000000000  129.704221461  -24.501223132   -0.000000000
   -1.361356817   13.000000000  125.895161967  -47.829962510   -0.000000000
   -1.256637061   13.000000000  119.769169389  -68.634847316   -0.000000000
   -1.151917306   13.000000000  111.626998078  -86.272145703   -0.000000000
   -1.047197551   13.000000000  101.846178687  -99.833820112   -0.000000000
   -0.942477796   13.000000000   90.872109532 -108.979881531   -0.000000000
   -0.837758041   13.000000000   79.179818335 -113.504363566   -0.000000000
   -0.733038286   13.000000000   67.276598655 -113.031699883   -0.000000000
   -0.628318531   13.000000000   55.664656640 -107.965673319   -0.000000000
   -0.523598776   13.000000000   44.846991207  -98.002008278   -0.000000000
   -0.418879020   13.000000000   35.277462516  -84.001974406   -0.000000000
   -0.314159265   13.000000000   27.386004901  -66.222042443   -0.000000000
   -0.209439510   13.000000000   21.503863212  -45.673977648   -0.000000000
   -0.104719755   13.000000000   17.877031832  -23.325347640   -0.000000000
    0.000000000   13.000000000   16.666575530    0.366775474   -0.000000000
    0.104719755   13.000000000   17.942038312   23.838051062   -0.000000000
    0.209439510   13.000000000   21.630891255   46.266208026   -0.000000000
    0.314159265   13.000000000   27.547184321   66.387822642   -0.000000000
    0.418879020   13.000000000   35.439603135   83.673725023   -0.000000000
    0.523598776   13.000000000   44.950866208   97.287523209   -0.000000000
    0.628318531   13.000000000   55.685733319  106.845021944   -0.000000000
    0.733038286   13.000000000   67.192073266  112.206127902   -0.000000000
    0.837758041   13.000000000   79.017050457  112.875206539   -0.000000000
    0.942477796   13.000000000   90.642585077  108.569866587   -0.000000000
    1.047197551   13.000000000  101.579695942   99.505413307   -0.000000000
    1.151917306   13.000000000  111.340158282   86.197016411   -0.000000000
    1.256637061   13.000000000  119.496219011   69.001544772   -0.000000000
    1.361356817   13.000000000  125.646759787   47.920642267   -0.000000000
    1.466076572   13.000000000  129.484537497   24.977536790   -0.000000000
    1.570796327   13.000000000  130.827446955    0.608735361   -0.000000000
    1.675516082   13.000000000  129.602921458  -23.987343399   -0.000000000
    1.780235837   13.000000000  125.867038299  -47.055726251   -0.000000000
    1.884955592   13.000000000  119.795857917  -68.522933503   -0.000000000
    1.989675347   13.000000000  111.648691908  -86.595221635   -0.000000000
    2.094395102   13.000000000  101.791790738 -100.932303604   -0.000000000
    2.199114858   13.000000000   90.656390423 -110.910962714   -0.000000000
    2.303834613   13.000000000   78.718062867 -116.260391045   -0.000000000
    2.408554368   13.000000000   66.490786584 -116.437497973   -0.000000000
    2.513274123   13.000000000   54.515446127 -111.465441466   -0.000000000
    2.617993878   13.000000000   43.303406513 -101.910531874   -0.000000000
    2.722713633   13.000000000   33.333597450  -87.774273859   -0.000000000
    2.827433388   13.000000000   25.072613892  -69.423999733   -0.000000000
    2.932153143   13.000000000   18.900152497  -48.016977203   -0.000000000
    3.036872898   13.000000000   15.095090901  -24.370890374   -0.000000000

   -3.141592654   14.000000000   14.999950425    0.154376141   -0.000000000
   -3.036872898   14.000000000   16.293519272   24.508586446   -0.000000000
   -2.932153143   14.000000000   20.117116372   48.232430197   -0.000000000
   -2.827433388   14.000000000   26.300693200   69.381558037   -0.000000000
   -2.722713633   14.000000000   34.547050877   87.616314417   -0.000000000
   -2.617993878   14.000000000   44.491438628  101.737350191   -0.000000000
   -2.513274123   14.000000000   55.686580412  111.456606730   -0.000000000
   -2.408554368   14.000000000   67.638348299  115.960191475   -0.000000000
   -2.303834613   14.000000000   79.813476038  115.753221290   -0.000000000
   -2.199114858   14.000000000   91.697959985  110.501103169   -0.000000000
   -2.094395102   14.000000000  102.784295869  100.416072304   -0.000000000
   -1.989675347   14.000000000  112.560358718   85.743180878   -0.000000000
   -1.884955592   14.000000000  120.638345449   67.901584582   -0.000000000
   -1.780235837   14.000000000  126.685135561   46.957849328   -0.000000000
   -1.675516082   14.000000000  130.404190325   23.768704758   -0.000000000
   -1.570796327   14.000000000  131.642742699   -0.346055238   -0.000000000
   -1.466076572   14.000000000  130.339674931  -24.332556482   -0.000000000
   -1.361356817   14.000000000  126.587383761  -46.942615056   -0.000000000
   -1.256637061   14.000000000  120.566132194  -67.801896893   -0.000000000
   -1.151917306   14.000000000  112.527024871  -85.148077671   -0.000000000
   -1.047197551   14.000000000  102.855413408  -98.873990917   -0.000000000
   -0.942477796   14.000000000   91.987864368 -107.956786861   -0.000000000
   -0.837758041   14.000000000   80.394046636 -112.473607367   -0.000000000
   -0.733038286   14.000000000   68.592788897 -112.153595285   -0.000000000
   -0.628318531   14.000000000   57.046517799 -107.542432746   -0.000000000
   -0.523598776   14.000000000   46.253713766  -98.043238094   -0.000000000
   -0.418879020   14.000000000   36.668521196  -84.384899774   -0.000000000
   -0.314159265   14.000000000   28.700447209  -67.147699029   -0.000000000
   -0.209439510   14.000000000   22.710308237  -46.690890732   -0.000000000
   -0.104719755   14.000000000   19.002883378  -23.874165134   -0.000000000
    0.000000000   14.000000000   17.736594998   -0.124663942   -0.000000000
    0.104719755   14.000000000   18.970817262   23.540926995   -0.000000000
    0.209439510   14.000000000   22.615149957   45.761843313   -0.000000000
    0.314159265   14.000000000   28.511165333   66.412659246   -0.000000000
    0.418879020   14.000000000   36.423890793   84.115506741   -0.000000000
    0.523598776   14.000000000   46.005365733   98.244456298   -0.000000000
    0.628318531   14.000000000   56.869962831  108.339849766   -0.000000000
    0.733038286   14.000000000   68.522030726  113.453059167   -0.000000000
    0.837758041   14.000000000   80.476276659  114.034325365   -0.000000000
    0.942477796   14.000000000   92.228798001  109.577505799   -0.000000000
    1.047197551   14.000000000  103.244922258   99.848529334   -0.000000000
    1.151917306   14.000000000  112.997418041   85.880683509   -0.000000000
    1.256637061   14.000000000  121.088696416   67.843760588   -0.000000000
    1.361356817   14.000000000  127.108071030   46.714557356   -0.000000000
    1.466076572   14.000000000  130.808283791   23.573712567   -0.000000000
    1.570796327   14.000000000  132.002481498   -0.572754590   -0.000000000
    1.675516082   14.000000000  130.684702291  -24.566421895   -0.000000000
    1.780235837   14.000000000  126.897123722  -47.575766007   -0.000000000
    1.884955592   14.000000000  120.794088750  -68.590664260   -0.000000000
    1.989675347   14.000000000  112.634903546  -86.650923484   -0.000000000
    2.094395102   14.000000000  102.785310359 -100.855240802   -0.000000000
    2.199114858   14.000000000   91.655037068 -110.877593919   -0.000000000
    2.303834613   14.000000000   79.700970901 -116.454560468   -0.000000000
    2.408554368   14.000000000   67.440388872 -116.739818973   -0.000000000
    2.513274123   14.000000000   55.438573493 -111.745346808   -0.000000000
    2.617993878   14.000000000   44.235999553 -101.554774808   -0.000000000
    2.722713633   14.000000000   34.327384918  -86.905139511   -0.000000000
    2.827433388   14.000000000   26.146939360  -68.788209250   -0.000000000
    2.932153143   14.000000000   20.030475933  -47.512633359   -0.000000000
    3.036872898   14.000000000   16.262123819  -24.221065298   -0.000000000

   -3.141592654   15.000000000   15.399310390   -0.426432917   -0.000000000
   -3.036872898   15.000000000   16.625464718   23.811918365   -0.000000000
   -2.932153143   15.000000000   20.356539989   47.303404688   -0.000000000
   -2.827433388   15.000000000   26.445830545   68.655627220   -0.000000000
   -2.722713633   15.000000000   34.624733170   87.035512527   -0.000000000
   -2.617993878   15.000000000   44.530944142  101.321746979   -0.000000000
   -2.513274123   15.000000000   55.695298787  111.175792301   -0.000000000
   -2.408554368   15.000000000   67.635820359  116.050750589   -0.000000000
   -2.303834613   15.000000000   79.814224044  115.776519550   -0.000000000
   -2.199114858   15.000000000   91.701156823  110.522914200   -0.000000000
   -2.094395102   15.000000000  102.782308905  100.354665876   -0.000000000
   -1.989675347   15.000000000  112.577107136   86.073025205   -0.000000000
   -1.884955592   15.000000000  120.662093688   67.959421522   -0.000000000
   -1.780235837   15.000000000  126.707676196   46.988186921   -0.000000000
   -1.675516082   15.000000000  130.444357117   24.134156309   -0.000000000
   -1.570796327   15.000000000  131.735659540    0.456189121   -0.000000000
   -1.466076572   15.000000000  130.541738732  -23.096462888   -0.000000000
   -1.361356817   15.000000000  126.919225692  -45.835123887   -0.000000000
   -1.256637061   15.000000000  121.012128520  -66.542584787   -0.000000000
   -1.151917306   15.000000000  113.091268193  -84.243636499   -0.000000000
   -1.047197551   15.000000000  103.489840126  -98.433962061   -0.000000000
   -0.942477796   15.000000000   92.630944059 -108.248913483   -0.000000000
   -0.837758041   15.000000000   80.973300316 -113.436029345   -0.000000000
   -0.733038286   15.000000000   69.033854000 -113.692821889   -0.000000000
   -0.628318531   15.000000000   57.341756702 -108.809245063   -0.000000000
   -0.523598776   15.000000000   46.402827370  -99.348822734   -0.000000000
   -0.418879020   15.000000000   36.695150319  -85.185990656   -0.000000000
   -0.314159265   15.000000000   28.673320322  -67.427091960   -0.000000000
   -0.209439510   15.000000000   22.670720701  -46.752932176   -0.000000000
   -0.104719755   15.000000000   18.963322560  -23.853403560   -0.000000000
    0.000000000   15.000000000   17.714543632    0.004137738   -0.000000000
    0.104719755   15.000000000   18.964927236   23.718815065   -0.000000000
    0.209439510   15.000000000   22.647985056   46.384788962   -0.000000000
    0.314159265   15.000000000   28.588473794   66.753800118   -0.000000000
    0.418879020   15.000000000   36.520042995   84.232623113   -0.000000000
    0.523598776   15.000000000   46.114909463   98.356439307   -0.000000000
    0.628318531   15.000000000   56.981072862  108.308842757   -0.000000000
    0.733038286   15.000000000   68.653322637  113.737240140   -0.000000000
    0.837758041   15.000000000   80.638425216  114.300821741   -0.000000000
    0.942477796   15.000000000   92.403469961  109.574591796   -0.000000000
    1.047197551   15.000000000  103.412241547  100.067148813   -0.000000000
    1.151917306   15.000000000  113.185115890   85.928114675   -0.000000000
    1.256637061   15.000000000  121.271315043   67.913301139   -0.000000000
    1.361356817   15.000000000  127.323878009   47.228097322   -0.000000000
    1.466076572   15.000000000  131.059003069   23.987705184   -0.000000000
    1.570796327   15.000000000  132.296424615   -0.385518754   -0.000000000
    1.675516082   15.000000000  130.987791416  -24.411688714   -0.000000000
    1.780235837   15.000000000  127.201959680  -47.648489663   -0.000000000
    1.884955592   15.000000000  121.070433220  -68.850304077   -0.000000000
    1.989675347   15.000000000  112.891399657  -86.801778282   -0.000000000
    2.094395102   15.000000000  103.012477381 -101.137895796   -0.000000000
    2.199114858   15.000000000   91.873847911 -110.930627244   -0.000000000
    2.303834613   15.000000000   79.943937499 -115.977187238   -0.000000000
    2.408554368   15.000000000   67.762612532 -115.913320185   -0.000000000
    2.513274123   15.000000000   55.835787817 -110.944083280   -0.000000000
    2.617993878   15.000000000   44.694471816 -101.105766100   -0.000000000
    2.722713633   15.000000000   34.821814324  -86.844128331   -0.000000000
    2.827433388   15.000000000   26.640615559  -68.734449264   -0.000000000
    2.932153143   15.000000000   20.516699781  -47.740717941   -0.000000000
    3.036872898   15.000000000   16.712009647  -24.624760596   -0.000000000

   -3.141592654   16.000000000   14.535378695   -0.160411199   -0.000000000
   -3.036872898   16.000000000   15.787301328   24.071143466   -0.000000000
   -2.932153143   16.000000000   19.544336954   47.447368644   -0.000000000
   -2.827433388   16.000000000   25.641510999   68.578009534   -0.000000000
   -2.722713633   16.000000000   33.813802379   86.851686689   -0.000000000
   -2.617993878   16.000000000   43.700418662  101.238035524   -0.000000000
   -2.513274123   16.000000000   54.863633087  111.151454358   -0.000000000
   -2.408554368   16.000000000   66.814280358  116.120078515   -0.000000000
   -2.303834613   16.000000000   79.009182968  115.988821829   -0.000000000
   -2.199114858   16.000000000   90.907403719  110.478900621   -0.000000000
   -2.094395102   16.000000000  101.991931470  100.300481555   -0.000000000
   -1.989675347   16.000000000  111.767772860   85.628822760   -0.000000000
   -1.884955592   16.000000000  119.789899153   67.003366467   -0.000000000
   -1.780235837   16.000000000  125.716960459   45.760716301   -0.000000000
   -1.675516082   16.000000000  129.283160252   22.272795348   -0.000000000
   -1.570796327   16.000000000  130.393632989   -1.240424945   -0.000000000
   -1.466076572   16.000000000  129.026078163  -24.654633159   -0.000000000
   -1.361356817   16.000000000  125.244697696  -47.098471208   -0.000000000
   -1.256637061   16.000000000  119.229989251  -67.281600228   -0.000000000
   -1.151917306   16.000000000  111.249120410  -84.463031394   -0.000000000
   -1.047197551   16.000000000  101.648882751  -98.173771027   -0.000000000
   -0.942477796   16.000000000   90.826161000 -107.762406144   -0.000000000
   -0.837758041   16.000000000   79.250116401 -112.437831718   -0.000000000
   -0.733038286   16.000000000   67.423744591 -112.600287778   -0.000000000
   -0.628318531   16.000000000   55.848712530 -107.704979729   -0.000000000
   -0.523598776   16.000000000   45.037853257  -98.056110734   -0.000000000
   -0.418879020   16.000000000   35.462330426  -84.177598251   -0.000000000
   -0.314159265   16.000000000   27.551444075  -66.334797036   -0.000000000
   -0.209439510   16.000000000   21.645333953  -46.045334132   -0.000000000
   -0.104719755   16.000000000   17.987593586  -23.682432177   -0.000000000
    0.000000000   16.000000000   16.735164776   -0.141190180   -0.000000000
    0.104719755   16.000000000   17.944369835   23.176666053   -0.000000000
    0.209439510   16.000000000   21.558666956   45.498692087   -0.000000000
    0.314159265   16.000000000   27.426884381   66.158090568   -0.000000000
    0.418879020   16.000000000   35.302219563   83.702052676   -0.000000000
    0.523598776   16.000000000   44.830938990   97.746687033   -0.000000000
    0.628318531   16.000000000   55.638053636  107.920469971   -0.000000000
    0.733038286   16.000000000   67.265080288  113.357300753   -0.000000000
    0.837758041   16.000000000   79.212508139  113.963042000   -0.000000000
    0.942477796   16.000000000   90.957494143  109.457095796   -0.000000000
    1.047197551   16.000000000  101.956899887   99.794632194   -0.000000000
    1.151917306   16.000000000  111.709774512   85.814748284   -0.000000000
    1.256637061   16.000000000  119.805722551   68.234680889   -0.000000000
    1.361356817   16.000000000  125.876730232   47.360157734   -0.000000000
    1.466076572   16.000000000  129.657276866   24.461857511   -0.000000000
    1.570796327   16.000000000  130.959300259    0.288213640   -0.000000000
    1.675516082   16.000000000  129.727966978  -23.738532100   -0.000000000
    1.780235837   16.000000000  126.019464883  -46.994225676   -0.000000000
    1.884955592   16.000000000  119.954042285  -68.272652862   -0.000000000
    1.989675347   16.000000000  111.827945887  -86.412606727   -0.000000000
    2.094395102   16.000000000  101.972407577 -100.955833677   -0.000000000
    2.199114858   16.000000000   90.842928555 -110.847839971   -0.000000000
    2.303834613   16.000000000   78.924448386 -115.936128690   -0.000000000
    2.408554368   16.000000000   66.749801646 -115.714665388   -0.000000000
    2.513274123   16.000000000   54.851356817 -110.819169845   -0.000000000
    2.617993878   16.000000000   43.724756220 -100.937101330   -0.000000000
    2.722713633   16.000000000   33.874079005  -86.579794921   -0.000000000
    2.827433388   16.000000000   25.716208388  -68.587752468   -0.000000000
    2.932153143   16.000000000   19.612877735  -47.606892003   -0.000000000
    3.036872898   16.000000000   15.830167824  -24.420191215   -0.000000000

   -3.141592654   17.000000000   10.618304606   -0.232806643   -0.000000000
   -3.036872898   17.000000000   11.882489287   24.177240854   -0.000000000
   -2.932153143   17.000000000   15.660047803   47.698854484   -0.000000000
   -2.827433388   17.000000000   21.799002065   69.078423909   -0.000000000
   -2.722713633   17.000000000   29.983491734   86.650779377   -0.000000000
   -2.617993878   17.000000000   39.842808806  100.982914193   -0.000000000
   -2.513274123   17.000000000   50.963344755  110.796441186   -0.000000000
   -2.408554368   17.000000000   62.874946251  116.004912484   -0.000000000
   -2.303834613   17.000000000   75.059406084  116.093744341   -0.000000000
   -2.199114858   17.000000000   87.012539501  111.308443789   -0.000000000
   -2.094395102   17.000000000   98.216154784  101.784069374   -0.000000000
   -1.989675347   17.000000000  108.178219944   87.858473746   -0.000000000
   -1.884955592   17.000000000  116.472760074   69.886688449   -0.000000000
   -1.780235837   17.000000000  122.718508077   48.870281303   -0.000000000
   -1.675516082   17.000000000  126.628059752   25.574678062   -0.000000000
   -1.570796327   17.000000000  128.029802791    1.214190541   -0.000000000
   -1.466076572   17.000000000  126.877694555  -23.149685734   -0.000000000
   -1.361356817   17.000000000  123.219078005  -46.364791059   -0.000000000
   -1.256637061   17.000000000  117.249343698  -67.194587471   -0.000000000
   -1.151917306   17.000000000  109.257159563  -84.842798827   -0.000000000
   -1.047197551   17.000000000   99.629940242  -98.432696676   -0.000000000
   -0.942477796   17.000000000   88.781911870 -107.967409506   -0.000000000
   -0.837758041   17.000000000   77.169983985 -113.051575801   -0.000000000
   -0.733038286   17.000000000   65.284467159 -113.073472725   -0.000000000
   -0.628318531   17.000000000   53.632949866 -108.575051660   -0.000000000
   -0.523598776   17.000000000   42.704458710  -99.323797613   -0.000000000
   -0.418879020   17.000000000   32.992343696  -85.480219053   -0.000000000
   -0.314159265   17.000000000   24.946070560  -67.605479630   -0.000000000
   -0.209439510   17.000000000   18.926964629  -46.797936560   -0.000000000
   -0.104719755   17.000000000   15.212703901  -23.818529869   -0.000000000
    0.000000000   17.000000000   13.967613263   -0.022780178   -0.000000000
    0.104719755   17.000000000   15.210201479   23.610035482   -0.000000000
    0.209439510   17.000000000   18.864290401   46.053861302   -0.000000000
    0.314159265   17.000000000   24.768258434   66.214346503   -0.000000000
    0.418879020   17.000000000   32.640695435   83.507522888   -0.000000000
    0.523598776   17.000000000   42.139354219   97.277519578   -0.000000000
    0.628318531   17.000000000   52.886903904  107.262966575   -0.000000000
    0.733038286   17.000000000   64.438523880  112.543558067   -0.000000000
    0.837758041   17.000000000   76.282536089  112.902506756   -0.000000000
    0.942477796   17.000000000   87.916921429  108.386173238   -0.000000000
    1.047197551   17.000000000   98.822454766   99.092430660   -0.000000000
    1.151917306   17.000000000  108.512131024   85.153484814   -0.000000000
    1.256637061   17.000000000  116.543894040   67.518091705   -0.000000000
    1.361356817   17.000000000  122.555254896   46.664135839   -0.000000000
    1.466076572   17.000000000  126.280072770   24.156139089   -0.000000000
    1.570796327   17.000000000  127.572813696    0.486167649   -0.000000000
    1.675516082   17.000000000  126.379495193  -23.181798433   -0.000000000
    1.780235837   17.000000000  122.730947979  -46.253896205   -0.000000000
    1.884955592   17.000000000  116.756385342  -67.471666753   -0.000000000
    1.989675347   17.000000000  108.703147134  -85.922246646   -0.000000000
    2.094395102   17.000000000   98.887762024 -100.998918073   -0.000000000
    2.199114858   17.000000000   87.726111023 -111.473142421   -0.000000000
    2.303834613   17.000000000   75.721433640 -116.940775518   -0.000000000
    2.408554368   17.000000000   63.419511320 -117.033615338   -0.000000000
    2.513274123   17.000000000   51.383123096 -111.999006352   -0.000000000
    2.617993878   17.000000000   40.144561639 -101.923759505   -0.000000000
    2.722713633   17.000000000   30.180109892  -87.589076869   -0.000000000
    2.827433388   17.000000000   21.943142374  -69.249487819   -0.000000000
    2.932153143   17.000000000   15.767301552  -48.297594298   -0.000000000
    3.036872898   17.000000000   11.928757035  -24.821918467   -0.000000000

   -3.141592654   18.000000000    5.988371731   -0.405830675   -0.000000000
   -3.036872898   18.000000000    7.216001729   23.874589445   -0.000000000
   -2.932153143   18.000000000   10.946644777   47.115114214   -0.000000000
   -2.827433388   18.000000000   17.016906650   68.420519420   -0.000000000
   -2.722713633   18.000000000   25.164495874   86.544038962   -0.000000000
   -2.617993878   18.000000000   35.034146834  101.295936185   -0.000000000
   -2.513274123   18.000000000   46.209403128  111.399295978   -0.000000000
   -2.408554368   18.000000000   58.187997927  116.585120931   -0.000000000
   -2.303834613   18.000000000   70.451212116  116.719185790   -0.000000000
   -2.199114858   18.000000000   82.453152371  111.636936641   -0.000000000
   -2.094395102   18.000000000   93.651397578  101.462414391   -0.000000000
   -1.989675347   18.000000000  103.548517207   86.756953947   -0.000000000
   -1.884955592   18.000000000  111.707537337   68.456032183   -0.000000000
   -1.780235837   18.000000000  117.783153919   47.279662414   -0.000000000
   -1.675516082   18.000000000  121.531349975   24.038381008   -0.000000000
   -1.570796327   18.000000000  122.774830299   -0.247256628   -0.000000000
   -1.466076572   18.000000000  121.474546404  -24.387399290   -0.000000000
   -1.361356817   18.000000000  117.690569279  -47.423482538   -0.000000000
   -1.256637061   18.000000000  111.600207338  -68.440579838   -0.000000000
   -1.151917306   18.000000000  103.481035077  -86.087824807   -0.000000000
   -1.047197551   18.000000000   93.706613292  -99.803966236   -0.000000000
   -0.942477796   18.000000000   82.724029130 -109.104344639   -0.000000000
   -0.837758041   18.000000000   71.044954048 -113.038559942   -0.000000000
   -0.733038286   18.000000000   59.215269863 -112.106934163   -0.000000000
   -0.628318531   18.000000000   47.731902746 -106.373378202   -0.000000000
   -0.523598776   18.000000000   37.082490879  -96.388392514   -0.000000000
   -0.418879020   18.000000000   27.668947373  -82.598393679   -0.000000000
   -0.314159265   18.000000000   19.891145138  -65.407505206   -0.000000000
   -0.209439510   18.000000000   14.042156037  -45.827619813   -0.000000000
   -0.104719755   18.000000000   10.376483726  -23.905014003   -0.000000000
    0.000000000   18.000000000    9.074095811   -0.925737131   -0.000000000
    0.104719755   18.000000000   10.206890783   22.590608766   -0.000000000
    0.209439510   18.000000000   13.752769240   44.986317215   -0.000000000
    0.314159265   18.000000000   19.577303100   65.995020716   -0.000000000
    0.418879020   18.000000000   27.458951810   83.874256796   -0.000000000
    0.523598776   18.000000000   37.025364855   98.083467303   -0.000000000
    0.628318531   18.000000000   47.845728954  107.647228338   -0.000000000
    0.733038286   18.000000000   59.426346176  112.474344587   -0.000000000
    0.837758041   18.000000000   71.231074642  112.226116289   -0.000000000
    0.942477796   18.000000000   82.787715732  107.640083059   -0.000000000
    1.047197551   18.000000000   93.600849739   98.307897167   -0.000000000
    1.151917306   18.000000000  103.218007880   84.777608198   -0.000000000
    1.256637061   18.000000000  111.243177596   67.814669462   -0.000000000
    1.361356817   18.000000000  117.310197891   47.529119200   -0.000000000
    1.466076572   18.000000000  121.116548850   24.906980275   -0.000000000
    1.570796327   18.000000000  122.477757662    1.004781266   -0.000000000
    1.675516082   18.000000000  121.291107209  -23.510583297   -0.000000000
    1.780235837   18.000000000  117.595370790  -46.898192849   -0.000000000
    1.884955592   18.000000000  111.528315308  -68.482879842   -0.000000000
    1.989675347   18.000000000  103.365023884  -86.814798077   -0.000000000
    2.094395102   18.000000000   93.484149543 -101.183519128   -0.000000000
    2.199114858   18.000000000   82.347042624 -110.981690633   -0.000000000
    2.303834613   18.000000000   70.410062127 -116.030088469   -0.000000000
    2.408554368   18.000000000   58.235866706 -115.717267822   -0.000000000
    2.513274123   18.000000000   46.345869552 -110.649947005   -0.000000000
    2.617993878   18.000000000   35.235417159 -100.704033805   -0.000000000
    2.722713633   18.000000000   25.392433228  -86.512494466   -0.000000000
    2.827433388   18.000000000   17.231310229  -68.673383233   -0.000000000
    2.932153143   18.000000000   11.117665792  -47.765758260   -0.000000000
    3.036872898   18.000000000    7.309203113  -24.777480248   -0.000000000

   -3.141592654   19.000000000    1.669700343    0.676160995   -0.000000000
   -3.036872898   19.000000000    3.035638592   25.335409577   -0.000000000
   -2.932153143   19.000000000    6.916670062   48.484031843   -0.000000000
   -2.827433388   19.000000000   13.093870957   69.140094019   -0.000000000
   -2.722713633   19.000000000   21.306596956   87.124200822   -0.000000000
   -2.617993878   19.000000000   31.204758708  101.205359303   -0.000000000
   -2.513274123   19.000000000   42.372397781  111.280899677   -0.000000000
   -2.408554368   19.000000000   54.350043752  116.447077945   -0.000000000
   -2.303834613   19.000000000   66.604461379  116.735815551   -0.000000000
   -2.199114858   19.000000000   78.617649640  111.840290809   -0.000000000
   -2.094395102   19.000000000   89.859853041  102.063266381   -0.000000000
   -1.989675347   19.000000000   99.832836609   87.629688930   -0.000000000
   -1.884955592   19.000000000  108.078589627   69.286568230   -0.000000000
   -1.780235837   19.000000000  114.222855714   47.650225171   -0.000000000
   -1.675516082   19.000000000  117.986518244   24.080927398   -0.000000000
   -1.570796327   19.000000000  119.229617402   -0.573614155   -0.000000000
   -1.466076572   19.000000000  117.886712375  -24.936599387   -0.000000000
   -1.361356817   19.000000000  114.055464680  -48.080912446   -0.000000000
   -1.256637061   19.000000000  107.914654280  -68.734008768   -0.000000000
   -1.151917306   19.000000000   99.761392533  -86.257018602   -0.000000000
   -1.047197551   19.000000000   89.976873771  -99.762934757   -0.000000000
   -0.942477796   19.000000000   79.001809863 -108.977436282   -0.000000000
   -0.837758041   19.000000000   67.300794554 -113.564164062   -0.000000000
   -0.733038286   19.000000000   55.392044097 -113.041722145   -0.000000000
   -0.628318531   19.000000000   43.785727610 -107.700358283   -0.000000000
   -0.523598776   19.000000000   32.982575708  -97.915571274   -0.000000000
   -0.418879020   19.000000000   23.423040999  -83.979411534   -0.000000000
   -0.314159265   19.000000000   15.499881084  -66.719340037   -0.000000000
   -0.209439510   19.000000000    9.557902445  -46.367652886   -0.000000000
   -0.104719755   19.000000000    5.835248364  -24.498273196   -0.000000000
    0.000000000   19.000000000    4.481982679   -1.224593728   -0.000000000
    0.104719755   19.000000000    5.601648988   22.546388295   -0.000000000
    0.209439510   19.000000000    9.158163046   45.202232116   -0.000000000
    0.314159265   19.000000000   15.014405719   66.143970706   -0.000000000
    0.418879020   19.000000000   22.916096846   84.122714987   -0.000000000
    0.523598776   19.000000000   32.512805111   98.387362220   -0.000000000
    0.628318531   19.000000000   43.366874132  108.034104399   -0.000000000
    0.733038286   19.000000000   54.990425557  113.191326486   -0.000000000
    0.837758041   19.000000000   66.898265711  113.432106906   -0.000000000
    0.942477796   19.000000000   78.573494852  108.739235173   -0.000000000
    1.047197551   19.000000000   89.515076414   99.357228607   -0.000000000
    1.151917306   19.000000000   99.222382891   85.489833768   -0.000000000
    1.256637061   19.000000000  107.280321518   67.897130829   -0.000000000
    1.361356817   19.000000000  113.320443429   47.122033586   -0.000000000
    1.466076572   19.000000000  117.069878042   24.249195437   -0.000000000
    1.570796327   19.000000000  118.335704232   -0.121551281   -0.000000000
    1.675516082   19.000000000  117.057594663  -24.218842890   -0.000000000
    1.780235837   19.000000000  113.296288147  -47.398905374   -0.000000000
    1.884955592   19.000000000  107.212778440  -68.379884856   -0.000000000
    1.989675347   19.000000000   99.077786526  -86.416774873   -0.000000000
    2.094395102   19.000000000   89.245179463 -100.632592024   -0.000000000
    2.199114858   19.000000000   78.141128733 -110.829686926   -0.000000000
    2.303834613   19.000000000   66.228675879 -115.953228240   -0.000000000
    2.408554368   19.000000000   54.038064418 -116.122187545   -0.000000000
    2.513274123   19.000000000   42.093490094 -111.170306875   -0.000000000
    2.617993878   19.000000000   30.922201997 -101.547416102   -0.000000000
    2.722713633   19.000000000   20.993480666  -87.360866369   -0.000000000
    2.827433388   19.000000000   12.773126445  -68.966325129   -0.000000000
    2.932153143   19.000000000    6.646529791  -47.566780607   -0.000000000
    3.036872898   19.000000000    2.888611288  -23.992793848   -0.000000000
